-5.946908
3.473043
2.999654
1.735714
2.017513
-5.017463
1.713890
-1.460655
9.325465
-6.473709
-7.044149
-4.644093
6.627694
3.659812
-6.488307
3.526962
12.736171
-2.518057
-7.073341
3.327952
1.468076
1.335077
4.541587
-1.948776
-4.369516
-0.125912
3.334045
-2.241727
3.917277
-3.998247
5.379773
-4.908540
2.016184
4.056171
-3.081276
-0.694259
1.720631
3.087239
-1.636194
-1.211088
3.871938
6.400204
0.350045
-1.936822
-2.350002
-7.301993
-4.339071
5.898260
1.826532
1.390574
1.998532
2.125824
0.627398
0.831433
2.250361
2.739168
2.696956
1.264455
2.371482
-0.145221
1.369069
1.541255
1.512777
-0.108269
-1.932060
0.686020
-3.316337
3.538610
4.772343
1.850469
3.618061
7.935170
0.713875
-7.586689
-0.004422
-0.186186
-1.699127
-4.600848
-0.797008
0.176215
-0.794981
2.690581
-3.421229
-2.911406
7.855899
-0.526167
-6.883848
-2.268819
0.840478
-7.534134
3.381096
2.440250
-3.832507
5.650596
2.435149
3.959621
3.432768
1.872358
-0.665323
0.416993
-0.995377
-1.608162
3.104268
1.742069
-1.687165
-2.083088
1.505493
0.536164
0.050116
0.747068
1.419676
2.208190
0.720358
1.908295
0.955008
0.549477
-2.057051
3.489661
1.358919
0.326267
-0.152194
2.195220
-0.646712
-0.797206
2.688821
1.299844
2.335705
0.258623
0.858216
-2.878125
5.915055
2.587189
-2.575823
1.808471
2.489378
8.296626
-3.436489
-3.365049
-5.465163
0.773056
-1.566133
1.352086
-0.688537
-9.075703
1.892097
1.700967
1.449499
-0.089900
-0.206565
2.017474
1.253026
1.316794
2.280320
2.736643
1.593055
-0.490742
2.570335
1.761077
1.561523
0.927576
-1.247821
0.170021
-3.687170
-1.512096
1.176373
3.069539
1.524790
-0.223537
2.147283
-3.137733
0.598656
4.071405
-1.230936
1.104417
-1.004800
7.365342
0.999832
4.112918
0.421345
-7.462504
1.001605
-3.537407
6.157420
-2.840820
4.549077
-2.266237
4.194666
-5.224374
2.348742
4.307011
0.705157
-10.868886
0.621109
-1.208196
2.423155
-2.462650
-3.162571
-2.725583
3.239296
3.447749
-1.277451
-3.870427
3.626981
7.777191
3.643992
1.465337
-12.920790
0.760811
3.386905
3.918014
5.944174
-1.532910
2.797908
-2.795521
2.355243
-0.665205
0.236056
-4.160888
-1.538273
0.337785
-4.638902
6.308439
-2.587032
-1.161392
-2.469665
7.857690
1.117397
-1.255975
-1.248958
7.384624
-3.857234
-3.846777
-0.267861
-4.961153
2.964569
-0.406771
4.073946
-2.370006
0.107696
2.261770
3.087548
-0.458600
-0.019503
3.115446
2.277659
6.287386
3.658335
-1.640946
1.627772
-8.176636
-12.020068
-0.016580
-5.131430
-0.050169
2.625990
-3.564558
1.962784
-1.674442
1.376282
-1.833632
1.853135
0.912478
-2.210005
1.243450
-0.282295
1.556697
1.382283
-3.135686
1.815434
-0.947745
0.784036
0.597231
-1.169708
-5.549199
-0.222521
10.071108
-1.071936
3.317984
3.128433
-0.453756
-2.290359
-0.635673
6.748393
-3.927453
-6.549627
-1.409241
-2.809106
-3.168071
0.757948
-4.078492
-2.871398
0.798193
-1.694158
-7.241397
-8.510379
1.763882
-2.612543
1.182555
5.397085
3.953309
1.995793
-0.519461
9.343816
3.289295
-2.306140
0.102057
6.829905
-1.062954
-4.141165
-1.186394
1.433851
-3.978737
6.354271
0.514570
2.617397
-1.686912
-3.414686
1.110911
4.388643
0.025215
-2.076439
5.309712
-1.473099
-5.712090
-2.788269
0.282844
-1.147978
2.951914
-0.662855
-4.225656
1.198324
2.814558
4.578687
-6.662938
4.058214
1.658809
1.889747
1.613959
1.019091
0.846781
-0.657310
1.743332
0.865480
1.406162
2.035570
1.811158
1.366125
0.350452
1.801684
1.009588
1.586055
0.964530
-0.616410
-0.509674
-1.915491
1.614919
2.680662
1.023204
-0.254576
-1.398204
-3.630337
3.107148
3.876502
1.753650
-2.125316
3.821317
3.169284
-1.735962
1.137049
0.830992
1.077018
2.046846
-0.830882
2.706991
1.604297
0.161133
-0.429527
0.820174
0.187794
-0.019511
0.799284
0.214185
1.283041
-0.370521
8.615203
-5.843543
2.272199
0.221504
5.853925
-2.474323
-1.508122
-3.138505
-1.264999
-2.823045
2.260425
1.448527
5.819719
0.185108
7.104700
2.030041
2.643875
1.131017
2.055475
1.979533
0.832153
2.095388
1.973095
3.069587
1.864618
2.458602
1.704777
0.116315
0.117453
1.478936
1.857357
0.501608
-2.325560
0.534923
1.181593
4.191332
-0.690718
1.939908
3.945490
-2.479006
1.682800
0.993084
0.947268
-0.481731
-0.373882
-1.718386
0.019702
-3.295386
-2.261969
-5.546390
3.897294
-2.619173
-0.064481
-4.889664
5.369912
-0.505483
-4.444950
3.322581
1.190079
1.613509
-1.556963
1.866067
-7.027933
8.904140
-0.173295
-0.759476
-1.261216
2.837973
-0.626074
-1.869176
2.286829
0.279243
6.388019
-1.203789
-3.006915
4.084787
5.304951
0.051911
-0.161398
-0.003446
3.225088
1.759920
1.890882
0.985855
-5.611192
2.355382
-1.975003
0.250144
-2.936558
2.724448
0.878319
8.351380
-1.291501
-0.097596
0.535917
1.470574
0.350000
0.445962
-3.414523
-3.111671
-3.677780
6.755435
0.990776
-1.629488
-2.764132
-5.903019
-3.882256
-1.218535
-10.649597
1.316999
7.259312
-5.395233
-6.183201
2.165988
2.851619
7.651331
10.396345
-0.950889
-3.857628
-0.753360
-2.858228
-1.387908
-3.730816
1.692555
-0.448822
-0.103407
1.370698
-7.118799
-0.699025
2.867815
-1.227110
1.914929
-1.588349
-0.253739
-1.405101
9.203557
-0.714008
1.054071
-6.519301
-7.617400
1.064093
-5.261261
1.772902
-3.578469
-0.466126
1.595645
2.006955
-2.191746
-1.205358
-0.632301
-1.396429
4.223444
-0.840378
-2.482319
-3.871069
1.642791
-0.667824
1.753824
-7.341326
4.369931
-1.385802
2.400891
1.025980
-1.993199
-1.511401
-1.222950
-1.805733
-2.109104
-4.459912
5.626838
3.445810
2.853469
6.047653
-2.776019
-3.012007
-2.127730
-4.177187
2.041023
-1.180106
-6.885082
-1.224455
2.809206
-1.441110
0.106403
-0.896860
-1.380194
-0.385248
-0.235080
-3.921368
-2.396628
0.712761
-3.225317
-4.023383
-1.675993
0.322929
3.270650
1.199511
-3.615397
-5.470483
-1.743912
-5.776517
2.891928
-1.788577
-4.284840
-1.306215
4.356794
4.092150
0.454589
0.865252
0.625166
0.121740
-1.626994
0.645064
-1.821171
6.532529
-0.151677
0.065896
4.834363
-10.010111
-3.396933
-1.553152
5.612846
-2.151095
-0.526946
-1.966145
-0.052930
-1.788045
-0.232212
0.434645
-1.424758
2.980777
3.068394
-8.925517
-0.627306
-3.009802
-12.131737
0.056795
-5.067461
-1.454302
5.355025
-1.179968
3.262579
-1.556266
-0.809290
-0.527411
-0.713050
1.944381
0.488382
2.949838
3.693954
1.320347
-0.758987
0.772993
-3.658942
-2.716256
2.316239
-0.635682
-6.328123
2.107853
1.602371
-3.867001
3.976945
0.448249
-2.198020
-0.879762
4.308714
0.030026
3.225735
-0.647492
1.410369
-1.631858
-10.480266
-0.063342
2.204730
-2.141341
3.687135
-3.141318
8.451635
5.573300
-5.064435
-4.028285
8.727365
-8.064360
-1.458254
-2.655873
-11.423757
-3.683258
2.878791
3.451462
1.720368
1.469575
8.156028
-6.619728
-5.601008
1.597324
-1.132909
2.385947
-3.002084
-2.890976
-1.116923
-2.771046
2.274262
-3.641134
-4.632259
-2.999458
-1.677102
7.236231
-1.355176
2.135410
0.166242
0.579116
-1.773442
1.869062
0.838807
0.945953
-7.530320
1.452112
-4.830976
0.360718
-7.340153
1.104006
0.435861
6.976143
-2.181497
8.435769
0.199155
2.100181
3.293255
0.077264
-1.684858
-0.806969
-3.361969
2.227769
-2.420798
5.963150
-10.889763
-1.501989
-0.409273
-0.466495
-0.252390
-0.294944
0.116196
0.113812
-0.937005
-0.513121
-0.005169
-0.619133
-0.792520
0.586974
0.038773
-0.438441
-0.442353
0.337177
-0.708772
0.100220
0.008106
0.273254
0.259847
-0.671027
-0.017777
-0.312893
-0.123154
-0.593621
-0.387947
-0.220377
-0.523848
-0.462972
-0.234277
-0.438691
-0.198975
-0.751901
-0.370207
0.183829
-0.512553
-0.156694
-0.024885
-0.122315
-0.146249
0.033049
-0.325556
-0.369919
-0.045196
0.064910
-0.640777
-0.039850
0.353551
-0.406601
-0.192145
-0.413825
-0.760047
-0.975758
0.054119
-0.057323
-0.930599
-0.084606
-0.298148
-0.059829
-6.670762
2.264212
-0.446537
-0.237860
-1.283719
3.778399
-0.694920
-3.183048
2.576725
-1.269813
-1.157133
-4.562561
8.143863
2.390811
-0.359219
-1.169105
-5.316169
5.800423
-6.514407
3.051636
-0.275528
-1.384818
-2.160418
-1.426131
4.135619
-0.407415
-5.307725
5.823664
-4.482967
-2.240684
3.223909
3.574419
0.651519
-6.037587
-1.765765
1.848608
-1.242673
-4.681247
5.256591
-5.270865
2.965307
2.042042
3.575318
-8.170975
-7.088613
-0.465151
2.225895
2.372356
-1.318936
6.170583
2.472688
-5.182983
4.094843
-3.252941
4.245466
-4.723865
-3.485591
2.224246
-0.960822
5.078704
3.750815
4.084947
6.528344
-1.285388
-1.521945
2.884507
-2.355593
-1.378399
-3.443623
-1.073547
-1.943140
-1.331390
-0.595969
0.196364
4.180854
-9.750482
-2.138694
-4.648127
3.902539
1.793946
-7.250248
-1.106076
-2.200146
-1.998919
-0.780654
-1.853912
-2.051995
-2.279577
-0.315615
0.149556
2.248556
8.023825
-0.810311
-0.116425
-0.025190
4.037071
-2.369589
-2.585334
-4.496066
-0.024274
-1.050310
-6.523924
-1.846025
-0.521064
-1.655643
5.921366
-1.597323
-7.449701
-3.915569
2.041087
-3.856378
-0.414993
-5.945757
-1.870768
1.852567
-0.300610
0.727694
-1.732134
3.006951
-1.393665
2.596108
-8.618253
-4.425651
-1.703283
0.310489
3.616939
-2.565029
-1.304432
2.880233
-1.522732
-0.457166
0.745595
-5.512004
1.464637
-2.288778
6.114363
-2.099950
-1.634537
4.117118
5.398246
1.182004
-1.710059
-3.694602
-2.138930
3.772071
-2.048733
-1.049864
-7.388760
-1.505132
1.776448
1.022592
6.303504
-9.004097
-1.026742
-0.845487
-0.015956
-0.025297
-0.736107
3.029243
-1.059626
-4.880829
8.636640
-4.251448
-1.653598
-0.236339
-0.872939
1.037187
2.403155
-4.472564
2.371452
-2.841926
-1.174972
-1.188839
-0.738888
1.585149
-1.530259
0.060462
-3.363589
-1.830024
-3.840609
1.969010
-1.994431
1.472880
-1.014569
-8.173113
1.089230
-1.226658
-1.085919
-9.571752
-0.924349
-1.361128
7.854504
-0.776322
2.088366
0.918965
-2.485194
-1.326412
-0.713931
-2.913726
2.114979
8.310402
-1.476909
0.619027
-1.424613
0.378212
-1.369319
0.688036
2.483371
-2.814958
-5.312931
4.823285
2.506911
4.781406
-3.325681
-2.434241
-5.892091
-7.725316
-0.761520
2.988741
-1.899985
-2.091761
3.036936
1.587853
-0.367460
-1.397110
6.896475
-0.240643
1.087255
-0.378951
-3.790479
-0.163545
-2.913157
0.674391
-2.917897
8.022827
-4.591525
-0.823120
0.083728
-0.693252
1.594298
-1.261626
2.058222
5.352389
-1.760200
2.822085
4.582659
-3.928367
-1.331477
-3.258520
-1.642199
-0.865315
-3.880090
-2.879259
-4.890749
4.841153
-3.952382
-3.599850
1.476967
4.963480
0.100647
5.524788
-1.278632
0.441611
-1.153157
-2.408756
-1.982549
2.419029
-8.387136
-0.951445
-2.853114
0.470657
-4.344829
8.555960
-1.045857
0.518327
4.844344
0.443890
-3.388620
-0.551805
-1.116842
4.351811
0.865041
0.067205
2.872946
-3.076553
1.097665
-1.163403
3.635632
1.783760
-1.217966
-0.267829
-0.820694
0.635660
-3.205332
-12.494895
-1.225391
-3.928051
3.329578
-1.990841
1.669169
0.103962
10.489632
-6.157207
-0.310819
2.626789
1.930977
-1.969640
-2.980590
-0.611608
-3.197868
-6.655006
-10.135228
4.261338
6.189713
3.139047
-0.921399
0.758380
1.633513
3.216895
0.857769
4.587166
-2.496935
-2.866759
-1.206224
-5.882853
-0.408212
-3.652902
2.711994
1.415440
-0.971801
-4.112539
4.804153
-4.140176
-1.577619
-1.006692
1.654475
-1.246684
-0.906662
-0.419448
-1.235060
-4.482541
4.780873
0.437121
4.763708
-2.209314
1.723363
-1.492132
-4.205272
-6.060787
-7.750614
5.601990
-1.355904
1.231387
-0.654597
0.998707
-1.933404
1.576372
-0.509411
-1.472420
3.869962
-7.624114
4.856632
2.044804
-2.366087
0.158888
-5.955559
-2.146740
-1.881548
-1.456429
-2.889252
2.426549
2.475372
4.196094
6.308006
-2.735876
-5.613916
-0.536081
-4.599115
0.630596
9.605017
-0.911128
-2.284155
-0.928142
-2.380026
1.992191
-2.505255
-2.827556
-6.495662
0.453085
0.085991
-7.664786
4.013828
3.749364
-0.826913
-0.235008
-0.914263
-0.648571
-1.580746
-4.803457
-0.396532
-0.396644
-4.261023
2.932257
-6.136772
3.111506
-2.382617
1.229741
1.044984
-0.972766
-5.471730
-2.244174
-0.971343
-1.695566
-0.907904
0.486721
-0.546522
-2.191435
6.745707
-2.220193
-1.741926
-7.046091
-1.798031
2.160198
-0.240904
-2.214165
3.599722
-0.838162
-0.483607
4.682139
-0.046193
-0.538125
9.997810
-2.377343
-6.003861
1.743205
-6.590711
-1.790263
2.224933
1.282598
-8.494338
-6.318527
-0.022620
-0.298889
-0.489660
4.812129
0.304986
-0.302425
-3.489531
-0.267996
-2.986535
6.136504
0.705499
4.069179
-1.488304
2.203745
-3.476421
-0.784642
-0.445877
-5.014346
-0.716400
-0.318736
0.604905
3.186768
3.483347
-7.125899
-6.255779
-2.431200
-3.053151
1.973825
-5.544683
-0.206082
-1.103974
-1.227626
-0.062472
2.473215
-0.896235
0.394878
1.355138
-1.657971
-3.917729
0.600000
