-4.460080
2.344160
0.016420
2.182206
0.653641
0.257967
-3.403367
0.048145
2.317788
1.046856
-3.822854
1.979730
1.694616
-4.087279
-4.365904
11.074621
0.329318
-4.269464
-0.457761
1.350278
-2.134873
1.062354
-5.538651
0.292310
-3.428240
-2.157191
-1.304609
2.248578
-1.189870
-0.183337
11.686812
1.752706
0.810092
0.766686
-0.239758
-0.258502
-0.411319
0.006909
0.861164
0.810760
-0.596175
0.009027
0.154066
0.118368
0.341642
0.497396
0.887449
0.471878
7.032045
1.054614
-3.417102
-2.318446
4.783207
3.953370
-3.242344
-3.041063
-2.093521
-1.684641
0.351478
-2.799855
2.062987
-0.046210
7.759175
-6.491036
0.271949
-0.242670
-0.695389
0.917132
0.216975
0.773054
-2.949898
2.934730
-0.497720
2.196841
-0.407825
-3.795969
-2.022866
5.744624
-1.653873
-2.291925
-0.939770
-4.409659
1.185124
3.734100
-0.185158
0.124458
3.629174
-1.732542
-2.621898
3.276258
2.725397
-0.907437
-9.456745
-1.634857
-3.311967
1.903029
0.438167
0.761465
-1.284167
-0.182659
1.099771
1.214760
1.148422
0.668435
0.601764
-1.070642
0.245012
2.057581
-0.407345
0.798672
-0.079211
0.088652
-0.600108
-1.235710
1.053515
0.120190
0.839848
0.706288
0.351388
-2.264617
0.956140
1.612401
1.140491
1.182878
-0.633318
0.419618
0.234299
-0.641959
0.336778
0.280190
-0.839881
0.003613
0.446281
0.377508
0.745801
0.565851
0.748375
0.384669
-0.075764
0.586758
0.079904
0.656696
0.282289
0.318206
2.163262
-4.118906
2.934158
4.308377
-0.221311
-1.834206
-0.415790
0.312530
-0.223058
-2.119107
0.870238
1.146264
0.332254
-0.405454
1.142570
0.574430
-1.906340
2.698739
-5.189074
-3.002776
2.921889
-4.377777
4.962188
0.399799
2.259798
-4.844503
1.510033
-2.920273
6.474145
0.854486
-1.600222
-6.327287
-0.163952
-0.547100
-1.092717
1.207835
0.268283
0.704651
0.562000
1.240004
0.129586
0.673030
0.182417
0.282701
0.645948
0.574002
0.026174
0.688474
0.357047
0.786360
1.261692
2.124225
-2.790920
-1.913651
3.072227
3.133527
6.038137
-0.566930
-5.177659
1.436506
-4.731533
1.365068
2.282006
-6.932272
0.160263
0.858709
0.412370
0.932037
-0.272922
1.114951
1.078427
0.943227
0.461151
-0.106031
0.236925
0.559379
0.927572
-0.011667
0.533715
0.430750
0.597522
-3.087592
-3.442037
-2.521279
-6.847125
-0.088052
0.833949
1.752497
-0.732902
3.908500
2.512044
1.748793
5.386027
-5.539936
1.879321
1.054559
5.777835
1.376775
-3.790743
4.334716
3.233857
6.884980
4.161119
-2.117023
-1.834085
-4.409458
-3.965240
-4.069268
-3.262065
-1.938698
-3.351040
0.199006
1.865535
-0.408562
1.033277
-1.978365
-1.372024
-5.468200
1.623751
2.341547
1.049805
1.450959
0.206854
-1.112807
-2.455419
1.518004
1.265419
0.975575
0.132320
4.268556
3.801803
-6.297139
1.492592
1.761656
2.484446
3.958136
-3.488577
-4.400652
-5.401818
3.523645
-3.530213
3.258166
-6.720572
-1.299511
-0.938246
3.494389
-0.358207
-2.509517
3.673594
-2.513615
1.703552
-5.489635
6.043052
-3.402924
6.192866
-3.358876
-1.644249
1.278243
-3.562953
7.157276
-1.014726
-3.655129
1.937627
3.707136
1.473983
-1.619171
-0.861522
1.751302
-2.311232
-1.076587
1.882490
-0.721220
2.148181
0.001903
-3.515630
-2.052363
-6.419645
1.700358
2.879415
-4.532201
-3.272935
-1.235470
0.439303
-1.548268
1.111838
4.182897
-0.730048
-0.976988
-3.566383
5.622089
-0.757133
0.187471
0.421658
0.886633
-0.289192
0.590238
-0.066204
0.440440
0.690133
0.476387
0.291996
-0.242394
0.219515
0.667997
0.643446
0.578542
-0.040264
-0.010009
3.950551
0.853474
2.094670
-2.312154
-0.316706
0.318671
-1.761551
-7.399869
1.067487
6.837033
-2.595564
-4.641382
3.321780
-1.301525
-2.781052
1.525563
-2.845624
0.730035
0.366179
1.838782
-0.146136
1.028104
-2.873770
2.680454
1.568032
-3.924620
-8.432678
1.605958
-2.892762
-3.578190
2.615482
0.359206
-6.712888
4.390387
3.004577
-0.981364
-1.797185
3.502185
-1.333392
-1.565459
3.796685
-0.107259
3.252421
-3.191068
-1.638309
-3.352614
2.341605
-0.630213
0.717127
4.725486
-2.549880
-5.759590
0.882635
0.786724
-1.805173
-1.068446
-5.240573
1.013846
6.418639
3.078131
0.500320
-1.502623
2.293457
0.538885
0.726706
-0.297468
0.169834
0.953293
0.761281
1.600166
1.473510
0.877213
0.847607
0.827453
0.537053
0.880207
0.721523
0.176679
-0.163878
0.283883
-2.041487
2.594824
-5.181162
2.639196
-1.748200
-0.248235
-2.027139
2.368545
-0.951710
-1.793874
0.786573
-1.655177
2.391412
-0.779019
1.137622
0.657868
4.833851
-0.464739
-1.143716
-3.193822
2.479361
0.014329
-3.039360
0.262680
-0.773535
3.368512
3.434502
3.304289
2.344216
-5.653383
-5.063944
2.538556
-3.178245
1.823387
6.600194
-6.179674
-3.979129
-4.484977
3.770067
0.507476
0.564356
-5.862340
0.192594
3.743502
4.595522
2.477946
-2.206170
0.126186
0.350000
0.789440
3.514795
-0.872540
-5.208863
-0.077792
1.313824
0.924616
0.308333
-0.555117
0.956046
-4.873173
-0.500954
0.447011
-1.139025
-6.042489
-8.025613
-0.178566
-3.723886
4.595754
0.305493
-2.866964
-0.464593
-4.361071
-1.468857
-1.286028
-0.471312
-0.844693
-1.459391
1.186838
-0.244625
-0.226201
4.396840
-0.658477
0.059579
-1.165728
2.105230
-0.171191
-0.607030
-0.754193
0.593951
-6.042345
-1.001953
5.051388
-1.058970
-1.905729
-0.511383
1.330808
1.941579
-5.719073
-2.946514
-1.224143
-1.203808
-1.127035
2.598185
-1.462085
-0.137179
-0.596228
-2.247880
-0.897477
-6.542839
4.226816
-4.634702
-1.769943
-2.933471
-1.594629
-1.734658
-1.737115
-2.229811
-1.561627
-1.303499
-0.421039
-1.684069
-1.224004
-0.718910
-3.420974
1.438646
-2.820833
4.384854
1.631662
-2.282015
-4.695496
-0.594149
-0.143508
5.202054
-0.517048
-1.675567
-0.771672
-0.120150
0.889827
4.969194
1.934983
2.292487
-0.566431
-5.207605
-0.200182
2.040802
-2.142005
-1.022348
-1.899103
0.657662
-5.538124
-0.737914
-1.671295
0.304413
4.077372
-3.687646
-0.365703
-2.783345
-4.824145
0.747593
3.106603
-0.787654
1.418214
0.540133
0.797700
-0.395353
-0.579964
0.556756
-2.688342
3.568146
2.499832
-7.177761
-0.593759
-1.691547
3.623294
-4.753559
-0.316452
0.206535
-0.191073
0.900059
-2.282082
0.847392
0.981860
-1.173479
-4.653174
-5.678709
-0.082647
2.893847
-0.725826
0.325594
0.881573
-0.492067
-0.226794
-6.750830
0.784235
-0.812721
-1.024902
0.685348
-3.080864
0.685495
0.997868
-1.777028
-2.199074
-3.944835
0.683504
-0.078329
-2.487474
-1.565080
-1.401857
-4.468889
5.356545
-1.625261
3.894517
-1.419883
3.177108
0.752256
-2.928821
0.438101
-3.151248
-0.680330
0.137067
-1.716427
3.247829
1.070461
4.440825
1.774493
-1.026584
2.056102
-1.691700
-1.562246
0.301952
-0.404766
-1.214011
-0.064810
-3.996783
-1.153251
-1.383976
-1.688168
-1.086293
1.393567
4.363273
-0.327882
2.488921
-0.877755
-2.625118
-5.250295
-1.736834
-1.364551
2.924359
-1.210454
-4.249720
-1.512348
-6.144253
-2.069903
0.130278
3.717574
-1.375065
1.007401
-1.938861
3.297531
0.695084
5.481858
-1.488946
2.008710
0.568763
6.882851
-3.738367
-2.864410
-2.418686
-0.901671
-3.063632
-3.340021
-2.353366
-1.959179
0.060012
4.046477
1.008277
-0.935010
4.421424
-1.839157
2.136221
-2.398017
-0.675125
-1.505863
1.624218
1.342083
-2.049887
-1.113272
-1.220431
-2.538244
-0.292566
0.077979
-0.465971
0.114359
-0.550900
-0.080787
-0.995925
-0.942823
-0.403507
-0.172737
0.029767
-0.964069
-0.555372
-1.150657
-0.140212
-0.016173
-0.153208
0.011039
-0.051445
-0.492027
0.366986
-0.259984
0.017894
-0.139035
-0.537907
-0.241477
-0.548404
-0.110809
0.270330
-0.038223
-0.619042
-0.377439
-0.960124
-0.709724
-0.289538
-0.341718
-0.706826
-0.805924
-0.077427
-0.670050
-0.069205
-0.441830
-0.666719
-0.128726
-0.502317
-0.042973
0.125606
-0.501492
-0.494994
-0.495107
-0.287148
-0.188940
-0.074589
0.214154
-0.298782
-0.107749
-0.145780
-0.240673
-0.473931
0.070888
-4.501005
-2.889526
-1.620927
-2.547810
-1.918840
7.377297
-0.777865
-0.011712
-1.149078
2.973149
-3.504991
-2.063522
-1.819156
-1.585514
-3.288261
1.345060
-0.463532
4.630627
2.392792
1.646892
-1.054586
-1.560445
-0.919197
-0.964537
-2.201776
0.251835
-0.373044
-0.810741
0.428804
1.327565
0.725599
3.242389
-2.511934
0.886370
-0.315219
3.460105
-1.822377
-1.807240
-2.345264
0.099663
2.990248
-1.291697
0.439561
-3.289661
0.182384
0.589772
-0.413946
1.139144
0.486024
0.399261
0.288231
-3.009342
-0.429963
1.207736
0.757135
0.631677
-2.768226
-0.025755
-0.129408
0.541594
4.073757
-0.959191
-1.462961
3.159209
1.851517
-6.240420
-1.319349
-1.494932
-1.656944
-0.063457
-3.064816
-1.093583
-1.118105
-1.132173
-5.839017
-5.396393
0.006506
-5.105094
1.835883
0.208781
-0.888345
-1.912025
4.545150
-1.384063
-1.458005
0.071508
-1.092160
0.542443
2.869879
-4.262851
5.775550
0.167837
-1.433404
3.801487
0.769919
-6.880035
-0.961044
-0.922476
-1.002774
-1.149683
-2.210666
-1.187662
0.084186
-1.147647
-1.710067
4.847676
-1.788321
-3.958510
3.015349
-1.698012
-0.772901
-1.092270
-1.076901
-1.814598
-2.063959
-4.262550
-1.031425
-1.669318
-2.642139
-0.050571
1.385799
4.241692
-1.831028
5.442722
0.842398
-3.096407
-2.106623
-1.498780
-2.276691
-1.466153
-1.467935
-1.857255
2.854508
-1.717898
-2.931421
-4.880640
-1.539943
1.728876
1.601156
-0.604678
0.809943
-2.254203
-2.319955
2.825917
2.288537
-2.969938
-1.749164
-0.677871
-3.463872
2.361191
-8.088367
-1.229931
-0.455681
3.319254
0.547068
-1.661201
-1.113395
-0.975703
-0.964739
-0.162965
1.798275
-0.612157
0.968052
-0.737291
-0.954894
3.234723
0.833663
-4.223327
1.721394
0.298442
-2.065062
-0.637690
0.033359
-0.037415
0.656997
-4.638030
-0.253291
0.063344
-4.503261
0.751577
-1.091161
-0.190471
-1.294198
0.819191
-2.211943
-1.324935
-2.119897
-0.888725
-1.652992
-3.694643
3.034722
-3.128449
-3.391205
-1.089765
-1.471747
-2.227523
1.104996
-0.960350
2.265477
-2.352464
3.885538
-1.774671
3.161478
-1.558446
2.755042
2.113843
-1.918739
-2.506530
1.902621
3.522508
1.125294
0.200738
-2.563354
3.979510
-1.022031
0.155362
-1.916712
0.783102
-2.132812
0.040051
3.471957
-1.358468
3.681563
-3.128664
0.860716
1.293743
-2.339678
2.659043
-2.161556
3.992595
-0.079474
-3.007082
1.274965
0.108372
0.110436
-4.306348
-3.052332
-2.549984
3.059091
-2.895004
1.803095
2.536255
-1.728513
0.585243
-1.191665
-3.421910
-0.642203
-0.986580
-1.606784
-1.066162
0.478237
-0.540081
-0.949425
-0.911099
-0.248143
-0.171396
-2.721793
-3.591927
0.448288
-1.860575
-2.408883
-1.533923
-4.601015
-1.105981
5.385162
1.665019
-1.432182
3.284285
3.019811
-5.246838
2.273433
-2.909613
-1.216200
-1.051340
2.851736
5.467711
-0.339926
-1.666333
-1.383311
-4.024651
-0.953199
-1.804943
1.455220
-1.835315
0.693032
-0.792674
-0.350412
2.433754
0.071802
-1.037238
3.028781
-1.011267
-2.775516
1.644579
-0.295027
0.796019
-2.325041
-0.158254
0.218086
-1.098148
2.235689
2.552904
-0.559389
2.812220
0.579487
-3.061003
-1.270353
-3.451036
-1.907326
-1.855363
-4.779832
-0.581373
-3.874879
-0.580946
-2.376397
0.484383
-0.774131
2.692151
0.254224
1.607241
-3.242134
-0.965321
-2.198402
-1.632511
-5.932230
3.512470
-1.425636
2.163524
-0.230691
4.191593
-9.002270
2.329248
-1.108101
1.071449
-1.063174
-2.811031
-1.395100
-0.976331
-1.099134
-1.654498
2.954144
-1.394144
-1.084463
-1.205221
1.140615
0.946463
-0.740922
5.983879
-1.754510
-1.685399
-1.233516
-1.229585
0.433270
-0.389937
-5.739671
2.781376
-1.410705
-2.374924
-0.062367
3.336355
-6.205233
-2.019575
-1.511422
1.277010
-2.011956
-4.364907
-1.160813
-0.876796
-1.479767
0.824898
-7.408677
-0.505205
6.056782
-1.041729
3.733252
-1.465828
-1.058094
-3.669256
1.647330
-1.222476
-0.579865
-1.078344
1.665828
-0.007294
-1.741905
4.637090
-1.366297
-2.280072
1.905732
2.551719
3.809633
-3.768315
-1.493102
0.119724
-2.214344
2.887369
-1.001676
0.785348
-1.134486
-1.621654
-2.208248
-0.605647
-4.609098
-1.915159
5.407213
0.824297
-3.023344
-2.567706
0.582060
1.071192
-1.210623
-1.597969
-0.616122
-1.017374
-4.435104
2.767494
-1.151885
-0.725020
0.592681
-3.380209
-8.218720
0.406279
-1.139898
2.585747
2.691216
0.236663
-1.235889
-0.601553
-1.200924
-0.872814
2.908702
-0.261697
-3.407169
-1.001776
0.068633
0.062106
-2.550079
-4.638804
-2.693890
2.111122
-0.514077
-1.009639
-2.595049
-1.317985
-0.967612
1.891627
-0.189332
1.183683
4.670658
-4.877282
2.210765
-3.235458
-0.653794
-2.847416
-0.210977
-3.584281
-1.442187
-2.248341
-1.290472
-0.539432
3.646776
-1.000341
1.333784
-1.325555
1.349041
-0.367228
2.381162
-4.244481
5.035459
-0.343654
-1.572245
-1.059612
1.223241
0.831949
-9.319709
-3.079343
-0.506388
1.962210
1.581717
-2.108005
0.600000
