-5.945691
3.469737
2.992178
1.723434
2.004426
-5.046722
1.692038
-1.478908
9.314366
-6.493445
-7.054608
-4.655123
6.611387
3.644291
-6.500254
3.520479
12.736317
-2.505102
-7.059362
3.345581
1.459718
1.342555
4.553557
-1.933400
-4.370158
-0.115885
3.358794
-2.217425
3.944245
-3.984479
5.390513
-4.906554
2.027549
4.072466
-3.065912
-0.679713
1.723507
3.088260
-1.651298
-1.222347
3.872924
6.406326
0.345283
-1.942539
-2.339884
-7.293910
-4.325146
5.908752
1.825881
1.391669
1.999571
2.126516
0.627883
0.832492
2.251202
2.741208
2.696611
1.263180
2.372123
-0.144657
1.367480
1.541981
1.513872
-0.108421
-1.920269
0.708543
-3.306223
3.551747
4.785605
1.841435
3.624335
7.951950
0.741461
-7.574079
0.007774
-0.173695
-1.686286
-4.586200
-0.784633
0.185576
-0.780243
2.694768
-3.423928
-2.913509
7.875870
-0.517216
-6.869973
-2.263046
0.851441
-7.519008
3.397900
2.461920
-3.818827
5.649719
2.431500
3.959674
3.432826
1.875222
-0.668642
0.410137
-1.001669
-1.620663
3.093303
1.730900
-1.696947
-2.095027
1.503219
0.534523
0.038962
0.745096
1.422517
2.212508
0.721031
1.910012
0.955170
0.551751
-2.059582
3.491671
1.360168
0.326710
-0.158033
2.194109
-0.652041
-0.800412
2.691237
1.301408
2.337288
0.260780
0.840826
-2.882193
5.945602
2.628464
-2.527155
1.865328
2.531512
8.329044
-3.428383
-3.324739
-5.453656
0.806382
-1.558859
1.400630
-0.650038
-9.027991
1.892230
1.702280
1.448301
-0.091911
-0.207249
2.019372
1.252015
1.317338
2.279816
2.737739
1.592878
-0.490658
2.570934
1.762911
1.562187
0.928443
-1.257051
0.160072
-3.703882
-1.533498
1.169114
3.052210
1.511503
-0.244814
2.142017
-3.160661
0.590984
4.062343
-1.245970
1.091625
-1.014937
7.364346
1.004824
4.109742
0.401437
-7.465920
1.007208
-3.527684
6.166006
-2.819618
4.554640
-2.246533
4.202688
-5.221917
2.360518
4.314219
0.701594
-10.868085
0.619993
-1.214805
2.417022
-2.458829
-3.166669
-2.735887
3.253085
3.443521
-1.269630
-3.870829
3.639214
7.780238
3.649516
1.467376
-12.914344
0.763537
3.390731
3.910170
5.928639
-1.555806
2.790788
-2.814994
2.354492
-0.673068
0.217419
-4.169224
-1.555732
0.324591
-4.653648
6.283653
-2.603058
-1.185505
-2.477091
7.855474
1.113293
-1.267165
-1.267704
7.379959
-3.865175
-3.857122
-0.286797
-4.982227
2.947717
-0.424342
4.041283
-2.395327
0.086374
2.240223
3.101306
-0.482903
-0.026724
3.104032
2.264216
6.293925
3.658337
-1.663202
1.607456
-8.180107
-12.020155
-0.039420
-5.131889
-0.066382
2.608429
-3.574391
1.957828
-1.678072
1.368241
-1.855081
1.854184
0.897546
-2.224389
1.238422
-0.289256
1.552215
1.372168
-3.143559
1.806754
-0.963045
0.777761
0.592841
-1.167947
-5.541140
-0.210848
10.080745
-1.089552
3.302582
3.110132
-0.480702
-2.301761
-0.638191
6.756879
-3.918454
-6.550181
-1.413679
-2.818036
-3.175153
0.752580
-4.075127
-2.877009
0.790776
-1.683142
-7.256486
-8.531319
1.739009
-2.625782
1.182723
5.383864
3.944752
1.981382
-0.532943
9.336778
3.266913
-2.317359
0.092220
6.823105
-1.088898
-4.154028
-1.216687
1.400740
-4.021608
6.331183
0.476828
2.582570
-1.709977
-3.448189
1.083247
4.374945
0.009658
-2.068483
5.308415
-1.471641
-5.712889
-2.808248
0.271067
-1.155598
2.959067
-0.681151
-4.220772
1.198739
2.799366
4.576520
-6.682036
4.025549
1.637462
1.889922
1.615047
1.018423
0.845653
-0.658200
1.743677
0.863377
1.406622
2.034919
1.810276
1.365568
0.350657
1.801347
1.010174
1.586818
0.965285
-0.612304
-0.495153
-1.908744
1.625642
2.695295
1.021861
-0.257269
-1.389115
-3.620206
3.108902
3.878061
1.761994
-2.116319
3.831733
3.181199
-1.721167
1.136736
0.831921
1.077808
2.049487
-0.831913
2.707643
1.605429
0.162005
-0.434220
0.816356
0.184077
-0.022108
0.799061
0.214488
1.284446
-0.370252
8.613080
-5.840620
2.279395
0.224501
5.855805
-2.472390
-1.489677
-3.127492
-1.257447
-2.828667
2.265830
1.459511
5.827323
0.188111
7.108415
2.034002
2.643731
1.132142
2.056209
1.979631
0.833097
2.097923
1.973004
3.071543
1.864323
2.459374
1.705644
0.116604
0.115714
1.479976
1.858383
0.501102
-2.318113
0.539856
1.179450
4.197170
-0.678236
1.956576
3.961334
-2.470101
1.682778
0.988205
0.941919
-0.493136
-0.367744
-1.719105
0.017728
-3.289438
-2.243677
-5.531130
3.919565
-2.602782
-0.040755
-4.880856
5.381362
-0.492361
-4.429607
3.345311
1.229471
1.647005
-1.521052
1.874461
-7.024899
8.903632
-0.190915
-0.777702
-1.277861
2.831709
-0.617757
-1.871088
2.302280
0.283901
6.393878
-1.209909
-3.000982
4.090307
5.304541
0.059786
-0.153764
-0.001534
3.223526
1.753067
1.882148
0.983319
-5.630557
2.337323
-1.991726
0.230778
-2.955827
2.703189
0.874737
8.353911
-1.311804
-0.107200
0.532963
1.465179
0.350000
0.450966
-3.407236
-3.108824
-3.674485
6.760829
1.000082
-1.623191
-2.760467
-5.912269
-3.878937
-1.211250
-10.652481
1.295372
7.270053
-5.391327
-6.178091
2.171640
2.841574
7.663621
10.405150
-0.943733
-3.854296
-0.748893
-2.853978
-1.383788
-3.727518
1.693808
-0.454030
-0.097860
1.375566
-7.119068
-0.690588
2.874478
-1.216831
1.920737
-1.573308
-0.241597
-1.394896
9.207943
-0.703468
1.069763
-6.519969
-7.623993
1.075815
-5.251879
1.775152
-3.574935
-0.462785
1.608241
2.024187
-2.198110
-1.194939
-0.620280
-1.386315
4.236837
-0.830268
-2.471265
-3.865573
1.657285
-0.652689
1.738335
-7.341596
4.354512
-1.403104
2.386132
1.010112
-2.011258
-1.530075
-1.230759
-1.823228
-2.129331
-4.458626
5.618239
3.430693
2.837261
6.040389
-2.792282
-3.010280
-2.130881
-4.193224
2.026844
-1.197291
-6.903318
-1.242204
2.794481
-1.458444
0.101266
-0.897183
-1.396283
-0.402719
-0.232482
-3.927410
-2.399875
0.711904
-3.234145
-4.018965
-1.679069
0.321910
3.273288
1.198260
-3.617484
-5.476479
-1.751114
-5.771625
2.893896
-1.784330
-4.287467
-1.308609
4.354429
4.092585
0.449394
0.864146
0.626291
0.121193
-1.630386
0.644121
-1.820539
6.530614
-0.153725
0.065283
4.840264
-10.011697
-3.399363
-1.551296
5.621211
-2.150342
-0.523339
-1.964230
-0.051302
-1.786186
-0.230243
0.433543
-1.426195
2.983448
3.071133
-8.930531
-0.626499
-3.010228
-12.129673
0.058240
-5.064523
-1.452427
5.362074
-1.178061
3.265692
-1.554410
-0.810131
-0.529845
-0.710949
1.948548
0.499168
2.964070
3.712555
1.340463
-0.737906
0.777797
-3.649996
-2.701503
2.332276
-0.618119
-6.316654
2.115749
1.619778
-3.863000
3.984729
0.459466
-2.183713
-0.867639
4.311159
0.039615
3.231708
-0.629493
1.431277
-1.615493
-10.477275
-0.044000
2.223617
-2.127542
3.708559
-3.129086
8.453888
5.578534
-5.069657
-4.028767
8.722761
-8.066393
-1.457069
-2.654787
-11.424822
-3.683649
2.882709
3.456209
1.725696
1.468460
8.160126
-6.621969
-5.607362
1.604400
-1.125832
2.393800
-2.994002
-2.891139
-1.114922
-2.769574
2.276765
-3.641269
-4.631616
-3.000647
-1.677097
7.240083
-1.349894
2.132055
0.166749
0.575585
-1.792462
1.863118
0.830725
0.944901
-7.528142
1.450794
-4.846654
0.370757
-7.335688
1.103106
0.443055
6.975290
-2.181827
8.433163
0.206776
2.096881
3.297415
0.073507
-1.687069
-0.811589
-3.376582
2.226516
-2.425029
5.958381
-10.901328
-1.503550
-0.409072
-0.466329
-0.252215
-0.295179
0.116249
0.114139
-0.936989
-0.513252
-0.004910
-0.619352
-0.792517
0.587173
0.038996
-0.438245
-0.442127
0.337563
-0.708697
0.100595
0.008564
0.273436
0.260291
-0.671222
-0.017782
-0.312996
-0.123135
-0.593859
-0.387930
-0.219948
-0.524002
-0.462858
-0.234037
-0.438569
-0.199514
-0.751976
-0.370717
0.184052
-0.512590
-0.156807
-0.025478
-0.122433
-0.146122
0.032935
-0.325724
-0.370911
-0.045485
0.064422
-0.640875
-0.040029
0.353946
-0.406490
-0.191798
-0.413907
-0.760100
-0.975876
0.054145
-0.057411
-0.931085
-0.084826
-0.298045
-0.059771
-6.667039
2.272592
-0.436625
-0.227045
-1.275157
3.782765
-0.685478
-3.175463
2.585739
-1.259082
-1.145582
-4.560950
8.154820
2.399071
-0.353919
-1.165060
-5.315978
5.810081
-6.514004
3.058443
-0.274388
-1.374301
-2.149142
-1.417169
4.148217
-0.396239
-5.300146
5.832713
-4.474354
-2.230832
3.213498
3.565228
0.637061
-6.044660
-1.785428
1.842240
-1.250288
-4.689953
5.238341
-5.277171
2.959933
2.029016
3.568380
-8.181885
-7.090298
-0.473778
2.222648
2.358679
-1.308616
6.175296
2.477586
-5.189478
4.093474
-3.260637
4.258468
-4.730567
-3.491233
2.223197
-0.966883
5.077893
3.750449
4.075148
6.521088
-1.294190
-1.528881
2.876584
-2.363956
-1.387449
-3.443498
-1.082353
-1.952526
-1.335322
-0.601381
0.184232
4.177783
-9.750616
-2.147229
-4.649616
3.901170
1.792035
-7.252616
-1.114902
-2.209568
-2.008420
-0.789054
-1.862704
-2.055882
-2.280993
-0.323687
0.142805
2.243145
8.034617
-0.813880
-0.109804
-0.021144
4.045243
-2.360747
-2.579036
-4.498315
-0.017285
-1.042394
-6.522015
-1.845569
-0.517885
-1.649230
5.927724
-1.592397
-7.456794
-3.903338
2.047035
-3.857488
-0.408462
-5.941978
-1.865687
1.859937
-0.294033
0.731727
-1.732439
3.017589
-1.386826
2.591913
-8.623516
-4.424902
-1.708617
0.313899
3.613336
-2.570908
-1.309329
2.887820
-1.528008
-0.459769
0.743225
-5.510818
1.461304
-2.294717
6.121588
-2.103595
-1.631705
4.104055
5.396342
1.173806
-1.715258
-3.701928
-2.144364
3.767906
-2.054013
-1.055601
-7.388130
-1.509658
1.770704
1.024153
6.308801
-9.010675
-1.023944
-0.838540
-0.012102
-0.021095
-0.733619
3.031676
-1.056872
-4.876876
8.641743
-4.246316
-1.653073
-0.236706
-0.868599
1.041886
2.402715
-4.474287
2.368895
-2.837585
-1.172401
-1.183782
-0.736588
1.588931
-1.527446
0.062512
-3.362219
-1.827974
-3.846907
1.963808
-2.001644
1.465832
-1.020887
-8.175667
1.085441
-1.231635
-1.091949
-9.572594
-0.930734
-1.366460
7.850230
-0.785154
2.084538
0.911293
-2.485806
-1.329997
-0.714056
-2.919410
2.109375
8.306409
-1.483189
0.616700
-1.430365
0.371812
-1.375446
0.683388
2.485783
-2.822045
-5.325370
4.838600
2.520797
4.794414
-3.311477
-2.422671
-5.894634
-7.721539
-0.745274
3.001821
-1.884572
-2.081803
3.047009
1.597023
-0.360779
-1.388371
6.909228
-0.225432
1.099964
-0.378318
-3.783656
-0.162200
-2.898941
0.681429
-2.904475
8.037746
-4.578423
-0.806918
0.089038
-0.675923
1.603342
-1.259093
2.062376
5.353756
-1.757787
2.827275
4.585857
-3.928184
-1.329322
-3.256130
-1.639790
-0.862576
-3.879697
-2.875734
-4.885330
4.847403
-3.953170
-3.597358
1.480418
4.963522
0.100226
5.537747
-1.276191
0.443176
-1.150512
-2.406378
-1.980149
2.425580
-8.388028
-0.948236
-2.852678
0.471269
-4.350805
8.557174
-1.056261
0.509960
4.853754
0.433573
-3.402811
-0.561477
-1.127832
4.348315
0.857143
0.056041
2.875325
-3.068394
1.099709
-1.163058
3.628384
1.799923
-1.221248
-0.265000
-0.831067
0.634586
-3.219647
-12.488471
-1.236412
-3.938754
3.319894
-2.002468
1.667385
0.107270
10.498693
-6.163716
-0.299607
2.636335
1.939084
-1.960591
-2.970330
-0.599485
-3.190698
-6.649925
-10.127278
4.277201
6.201400
3.150749
-0.925439
0.765634
1.650415
3.228687
0.874875
4.596533
-2.489185
-2.851127
-1.194223
-5.875175
-0.397449
-3.635946
2.718079
1.429718
-0.960196
-4.109220
4.816744
-4.121221
-1.567663
-0.997273
1.657300
-1.236172
-0.896494
-0.414596
-1.225062
-4.473684
4.789713
0.451104
4.774917
-2.209863
1.732158
-1.485555
-4.197901
-6.062574
-7.759364
5.609614
-1.345801
1.247209
-0.644172
1.009979
-1.923440
1.586832
-0.501104
-1.463239
3.882651
-7.627993
4.839648
2.036696
-2.382791
0.138442
-5.957213
-2.163468
-1.897987
-1.470207
-2.905959
2.422026
2.460786
4.176847
6.297415
-2.745483
-5.613136
-0.553853
-4.604311
0.618708
9.603056
-0.923291
-2.300852
-0.941779
-2.396811
1.977061
-2.521970
-2.847091
-6.499453
0.438515
0.070275
-7.664305
4.027154
3.760648
-0.815098
-0.222160
-0.913045
-0.636568
-1.569663
-4.799518
-0.384872
-0.385204
-4.258117
2.943383
-6.137620
3.124040
-2.385094
1.242738
1.056197
-0.970651
-5.462996
-2.244198
-0.959693
-1.683879
-0.897155
0.498173
-0.534715
-2.180387
6.757673
-2.209457
-1.728470
-7.053810
-1.809814
2.148409
-0.250660
-2.232021
3.604103
-0.845388
-0.493621
4.672352
-0.055922
-0.541739
9.987016
-2.381956
-6.010441
1.747096
-6.601452
-1.799805
2.212536
1.289828
-8.498335
-6.322783
-0.032480
-0.308986
-0.501049
4.801744
0.295227
-0.315242
-3.495315
-0.276830
-2.992791
6.149663
0.715714
4.079423
-1.479017
2.213076
-3.470535
-0.776972
-0.437065
-5.014383
-0.707231
-0.311065
0.609631
3.193357
3.486679
-7.123065
-6.254807
-2.425078
-3.050840
1.977585
-5.543106
-0.202086
-1.094797
-1.220096
-0.054066
2.482386
-0.886889
0.402254
1.359065
-1.648533
-3.917510
0.600000
